<?xml version="1.0"?>
<opencv_storage>
<cascade>
  <stageType>BOOST</stageType>
  <featureType>HAAR</featureType>
  <height>24</height>
  <width>24</width>
  <stageParams>
    <boostType>GAB</boostType>
    <minHitRate>9.9500000476837158e-001</minHitRate>
    <maxFalseAlarm>5.0000000000000000e-001</maxFalseAlarm>
    <weightTrimRate>9.4999999999999996e-001</weightTrimRate>
    <maxDepth>1</maxDepth>
    <maxWeakCount>100</maxWeakCount></stageParams>
  <featureParams>
    <maxCatCount>0</maxCatCount>
    <featSize>1</featSize>
    <mode>BASIC</mode></featureParams>
  <stageNum>11</stageNum>
  <stages>
    <!-- stage 0 -->
    <_>
      <maxWeakCount>3</maxWeakCount>
      <stageThreshold>-1.1161397695541382e+000</stageThreshold>
      <weakClassifiers>
        <_>
          <internalNodes>
            0 -1 27 2.3176252841949463e-002</internalNodes>
          <leafValues>
            -9.1424059867858887e-001 2.5360229611396790e-001</leafValues></_>
        <_>
          <internalNodes>
            0 -1 15 -3.2217460684478283e-003</internalNodes>
          <leafValues>
            9.1028189659118652e-001 -6.9617021083831787e-001</leafValues></_>
        <_>
          <internalNodes>
            0 -1 24 -2.3376881144940853e-003</internalNodes>
          <leafValues>
            4.9427095055580139e-001 -9.6176022291183472e-001</leafValues></_></weakClassifiers></_>
    <!-- stage 1 -->
    <_>
      <maxWeakCount>3</maxWeakCount>
      <stageThreshold>-9.8524397611618042e-001</stageThreshold>
      <weakClassifiers>
        <_>
          <internalNodes>
            0 -1 27 2.3241322487592697e-002</internalNodes>
          <leafValues>
            -9.1532212495803833e-001 3.7688043713569641e-001</leafValues></_>
        <_>
          <internalNodes>
            0 -1 0 -4.0357066318392754e-003</internalNodes>
          <leafValues>
            7.8714668750762939e-001 -7.2000235319137573e-001</leafValues></_>
        <_>
          <internalNodes>
            0 -1 18 -5.0138361752033234e-002</internalNodes>
          <leafValues>
            8.3054423332214355e-001 -6.4212203025817871e-001</leafValues></_></weakClassifiers></_>
    <!-- stage 2 -->
    <_>
      <maxWeakCount>4</maxWeakCount>
      <stageThreshold>-1.2909927368164063e+000</stageThreshold>
      <weakClassifiers>
        <_>
          <internalNodes>
            0 -1 42 2.8830664232373238e-003</internalNodes>
          <leafValues>
            -8.5060644149780273e-001 6.5244376659393311e-001</leafValues></_>
        <_>
          <internalNodes>
            0 -1 7 -1.4636273682117462e-001</internalNodes>
          <leafValues>
            3.1095010042190552e-001 -8.6264407634735107e-001</leafValues></_>
        <_>
          <internalNodes>
            0 -1 2 -2.0487777888774872e-001</internalNodes>
          <leafValues>
            2.0448856055736542e-001 -9.7432672977447510e-001</leafValues></_>
        <_>
          <internalNodes>
            0 -1 4 -3.2097424264065921e-004</internalNodes>
          <leafValues>
            -9.9213093519210815e-001 2.2299030423164368e-001</leafValues></_></weakClassifiers></_>
    <!-- stage 3 -->
    <_>
      <maxWeakCount>5</maxWeakCount>
      <stageThreshold>-1.4587889909744263e+000</stageThreshold>
      <weakClassifiers>
        <_>
          <internalNodes>
            0 -1 38 4.5524183660745621e-003</internalNodes>
          <leafValues>
            -8.6816209554672241e-001 5.6946182250976563e-001</leafValues></_>
        <_>
          <internalNodes>
            0 -1 14 -3.4843742847442627e-002</internalNodes>
          <leafValues>
            6.9412052631378174e-001 -6.1508691310882568e-001</leafValues></_>
        <_>
          <internalNodes>
            0 -1 28 -2.6343301869928837e-003</internalNodes>
          <leafValues>
            7.0145392417907715e-001 -6.0526084899902344e-001</leafValues></_>
        <_>
          <internalNodes>
            0 -1 29 6.1531120445579290e-004</internalNodes>
          <leafValues>
            3.3140361309051514e-001 -9.4687455892562866e-001</leafValues></_>
        <_>
          <internalNodes>
            0 -1 17 -1.0706402361392975e-001</internalNodes>
          <leafValues>
            -9.7308963537216187e-001 2.9831722378730774e-001</leafValues></_></weakClassifiers></_>
    <!-- stage 4 -->
    <_>
      <maxWeakCount>3</maxWeakCount>
      <stageThreshold>-1.4442940950393677e+000</stageThreshold>
      <weakClassifiers>
        <_>
          <internalNodes>
            0 -1 40 -4.8228981904685497e-003</internalNodes>
          <leafValues>
            7.8801041841506958e-001 -8.4795081615447998e-001</leafValues></_>
        <_>
          <internalNodes>
            0 -1 13 -9.8768621683120728e-003</internalNodes>
          <leafValues>
            -8.4058165550231934e-001 2.6161292195320129e-001</leafValues></_>
        <_>
          <internalNodes>
            0 -1 41 1.9791678641922772e-004</internalNodes>
          <leafValues>
            2.4423833191394806e-001 -9.9242746829986572e-001</leafValues></_></weakClassifiers></_>
    <!-- stage 5 -->
    <_>
      <maxWeakCount>4</maxWeakCount>
      <stageThreshold>-1.7474278211593628e+000</stageThreshold>
      <weakClassifiers>
        <_>
          <internalNodes>
            0 -1 36 2.0796060562133789e-003</internalNodes>
          <leafValues>
            -8.9688456058502197e-001 5.3141606040298939e-003</leafValues></_>
        <_>
          <internalNodes>
            0 -1 20 -2.3197202384471893e-001</internalNodes>
          <leafValues>
            7.6303464174270630e-001 -6.8099331855773926e-001</leafValues></_>
        <_>
          <internalNodes>
            0 -1 33 -3.8169852923601866e-003</internalNodes>
          <leafValues>
            6.0510998964309692e-001 -5.4982501268386841e-001</leafValues></_>
        <_>
          <internalNodes>
            0 -1 3 3.3921241993084550e-004</internalNodes>
          <leafValues>
            3.8027507066726685e-001 -8.7580025196075439e-001</leafValues></_></weakClassifiers></_>
    <!-- stage 6 -->
    <_>
      <maxWeakCount>4</maxWeakCount>
      <stageThreshold>-1.5500130653381348e+000</stageThreshold>
      <weakClassifiers>
        <_>
          <internalNodes>
            0 -1 39 -1.8749916926026344e-002</internalNodes>
          <leafValues>
            8.3129584789276123e-001 -8.2207095623016357e-001</leafValues></_>
        <_>
          <internalNodes>
            0 -1 8 2.1973525872454047e-004</internalNodes>
          <leafValues>
            -7.0732146501541138e-001 5.6254416704177856e-001</leafValues></_>
        <_>
          <internalNodes>
            0 -1 6 5.7628314942121506e-002</internalNodes>
          <leafValues>
            -4.2101776599884033e-001 9.0509229898452759e-001</leafValues></_>
        <_>
          <internalNodes>
            0 -1 35 -7.0888735353946686e-004</internalNodes>
          <leafValues>
            -9.2571306228637695e-001 4.4308015704154968e-001</leafValues></_></weakClassifiers></_>
    <!-- stage 7 -->
    <_>
      <maxWeakCount>4</maxWeakCount>
      <stageThreshold>-1.9732637405395508e+000</stageThreshold>
      <weakClassifiers>
        <_>
          <internalNodes>
            0 -1 30 -6.5899281762540340e-003</internalNodes>
          <leafValues>
            3.2641974091529846e-001 -8.7474966049194336e-001</leafValues></_>
        <_>
          <internalNodes>
            0 -1 11 -1.3713159132748842e-003</internalNodes>
          <leafValues>
            3.3464127779006958e-001 -7.8902345895767212e-001</leafValues></_>
        <_>
          <internalNodes>
            0 -1 26 1.8070531077682972e-003</internalNodes>
          <leafValues>
            -6.8384730815887451e-001 4.6312001347541809e-001</leafValues></_>
        <_>
          <internalNodes>
            0 -1 23 -1.5093211550265551e-003</internalNodes>
          <leafValues>
            4.0387445688247681e-001 -7.4930804967880249e-001</leafValues></_></weakClassifiers></_>
    <!-- stage 8 -->
    <_>
      <maxWeakCount>5</maxWeakCount>
      <stageThreshold>-1.3377538919448853e+000</stageThreshold>
      <weakClassifiers>
        <_>
          <internalNodes>
            0 -1 12 2.7855253219604492e-001</internalNodes>
          <leafValues>
            -8.2202357053756714e-001 8.4236454963684082e-001</leafValues></_>
        <_>
          <internalNodes>
            0 -1 10 1.5616699238307774e-004</internalNodes>
          <leafValues>
            -7.1338617801666260e-001 6.0068398714065552e-001</leafValues></_>
        <_>
          <internalNodes>
            0 -1 16 -1.7424747347831726e-002</internalNodes>
          <leafValues>
            8.2391881942749023e-001 -4.5354223251342773e-001</leafValues></_>
        <_>
          <internalNodes>
            0 -1 22 -3.6982288584113121e-003</internalNodes>
          <leafValues>
            4.0649610757827759e-001 -8.7457251548767090e-001</leafValues></_>
        <_>
          <internalNodes>
            0 -1 31 8.7992462795227766e-005</internalNodes>
          <leafValues>
            2.4830950796604156e-001 -9.0594303607940674e-001</leafValues></_></weakClassifiers></_>
    <!-- stage 9 -->
    <_>
      <maxWeakCount>6</maxWeakCount>
      <stageThreshold>-1.9514244794845581e+000</stageThreshold>
      <weakClassifiers>
        <_>
          <internalNodes>
            0 -1 37 4.5840544626116753e-003</internalNodes>
          <leafValues>
            -8.5945367813110352e-001 2.9836064577102661e-001</leafValues></_>
        <_>
          <internalNodes>
            0 -1 19 -8.6603224277496338e-002</internalNodes>
          <leafValues>
            8.2605880498886108e-001 -5.8197504281997681e-001</leafValues></_>
        <_>
          <internalNodes>
            0 -1 33 -3.1751701608300209e-003</internalNodes>
          <leafValues>
            5.3473895788192749e-001 -5.7874774932861328e-001</leafValues></_>
        <_>
          <internalNodes>
            0 -1 21 -8.8599754963070154e-004</internalNodes>
          <leafValues>
            3.0291271209716797e-001 -8.3975297212600708e-001</leafValues></_>
        <_>
          <internalNodes>
            0 -1 25 -3.7031257525086403e-003</internalNodes>
          <leafValues>
            4.9035143852233887e-001 -5.5039554834365845e-001</leafValues></_>
        <_>
          <internalNodes>
            0 -1 9 1.3767040218226612e-004</internalNodes>
          <leafValues>
            3.1623482704162598e-001 -9.3802130222320557e-001</leafValues></_></weakClassifiers></_>
    <!-- stage 10 -->
    <_>
      <maxWeakCount>4</maxWeakCount>
      <stageThreshold>-1.1786770820617676e+000</stageThreshold>
      <weakClassifiers>
        <_>
          <internalNodes>
            0 -1 34 1.3533612713217735e-002</internalNodes>
          <leafValues>
            -8.2144856452941895e-001 7.4912077188491821e-001</leafValues></_>
        <_>
          <internalNodes>
            0 -1 5 -1.7963126083486713e-005</internalNodes>
          <leafValues>
            2.0180283486843109e-001 -8.4459882974624634e-001</leafValues></_>
        <_>
          <internalNodes>
            0 -1 1 -1.8634754419326782e-001</internalNodes>
          <leafValues>
            3.3319646120071411e-001 -7.9331570863723755e-001</leafValues></_>
        <_>
          <internalNodes>
            0 -1 32 3.1208607833832502e-004</internalNodes>
          <leafValues>
            2.3428435623645782e-001 -9.7207254171371460e-001</leafValues></_></weakClassifiers></_></stages>
  <features>
    <_>
      <rects>
        <_>
          0 0 2 4 -1.</_>
        <_>
          0 0 1 2 2.</_>
        <_>
          1 2 1 2 2.</_></rects>
      <tilted>0</tilted></_>
    <_>
      <rects>
        <_>
          0 0 24 16 -1.</_>
        <_>
          0 8 24 8 2.</_></rects>
      <tilted>0</tilted></_>
    <_>
      <rects>
        <_>
          0 2 22 22 -1.</_>
        <_>
          0 13 22 11 2.</_></rects>
      <tilted>0</tilted></_>
    <_>
      <rects>
        <_>
          0 15 4 9 -1.</_>
        <_>
          0 18 4 3 3.</_></rects>
      <tilted>0</tilted></_>
    <_>
      <rects>
        <_>
          0 17 6 7 -1.</_>
        <_>
          3 17 3 7 2.</_></rects>
      <tilted>0</tilted></_>
    <_>
      <rects>
        <_>
          0 19 18 2 -1.</_>
        <_>
          0 19 9 1 2.</_>
        <_>
          9 20 9 1 2.</_></rects>
      <tilted>0</tilted></_>
    <_>
      <rects>
        <_>
          1 0 18 4 -1.</_>
        <_>
          1 0 9 2 2.</_>
        <_>
          10 2 9 2 2.</_></rects>
      <tilted>0</tilted></_>
    <_>
      <rects>
        <_>
          1 0 23 14 -1.</_>
        <_>
          1 7 23 7 2.</_></rects>
      <tilted>0</tilted></_>
    <_>
      <rects>
        <_>
          1 1 2 22 -1.</_>
        <_>
          1 12 2 11 2.</_></rects>
      <tilted>0</tilted></_>
    <_>
      <rects>
        <_>
          1 17 1 6 -1.</_>
        <_>
          1 20 1 3 2.</_></rects>
      <tilted>0</tilted></_>
    <_>
      <rects>
        <_>
          2 0 1 24 -1.</_>
        <_>
          2 12 1 12 2.</_></rects>
      <tilted>0</tilted></_>
    <_>
      <rects>
        <_>
          2 9 14 2 -1.</_>
        <_>
          2 9 7 1 2.</_>
        <_>
          9 10 7 1 2.</_></rects>
      <tilted>0</tilted></_>
    <_>
      <rects>
        <_>
          2 12 22 8 -1.</_>
        <_>
          13 12 11 8 2.</_></rects>
      <tilted>0</tilted></_>
    <_>
      <rects>
        <_>
          2 17 12 6 -1.</_>
        <_>
          2 20 12 3 2.</_></rects>
      <tilted>0</tilted></_>
    <_>
      <rects>
        <_>
          3 18 10 3 -1.</_>
        <_>
          8 18 5 3 2.</_></rects>
      <tilted>0</tilted></_>
    <_>
      <rects>
        <_>
          4 1 1 2 -1.</_>
        <_>
          4 2 1 1 2.</_></rects>
      <tilted>0</tilted></_>
    <_>
      <rects>
        <_>
          5 0 10 1 -1.</_>
        <_>
          10 0 5 1 2.</_></rects>
      <tilted>0</tilted></_>
    <_>
      <rects>
        <_>
          5 8 16 14 -1.</_>
        <_>
          5 15 16 7 2.</_></rects>
      <tilted>0</tilted></_>
    <_>
      <rects>
        <_>
          5 18 18 2 -1.</_>
        <_>
          11 18 6 2 3.</_></rects>
      <tilted>0</tilted></_>
    <_>
      <rects>
        <_>
          5 22 18 2 -1.</_>
        <_>
          11 22 6 2 3.</_></rects>
      <tilted>0</tilted></_>
    <_>
      <rects>
        <_>
          7 2 17 16 -1.</_>
        <_>
          7 10 17 8 2.</_></rects>
      <tilted>0</tilted></_>
    <_>
      <rects>
        <_>
          7 22 9 2 -1.</_>
        <_>
          7 23 9 1 2.</_></rects>
      <tilted>0</tilted></_>
    <_>
      <rects>
        <_>
          10 9 3 12 -1.</_>
        <_>
          10 15 3 6 2.</_></rects>
      <tilted>0</tilted></_>
    <_>
      <rects>
        <_>
          10 12 6 3 -1.</_>
        <_>
          13 12 3 3 2.</_></rects>
      <tilted>0</tilted></_>
    <_>
      <rects>
        <_>
          12 20 4 4 -1.</_>
        <_>
          12 22 4 2 2.</_></rects>
      <tilted>0</tilted></_>
    <_>
      <rects>
        <_>
          15 9 3 4 -1.</_>
        <_>
          15 11 3 2 2.</_></rects>
      <tilted>0</tilted></_>
    <_>
      <rects>
        <_>
          16 8 6 3 -1.</_>
        <_>
          16 9 6 1 3.</_></rects>
      <tilted>0</tilted></_>
    <_>
      <rects>
        <_>
          16 20 8 2 -1.</_>
        <_>
          20 20 4 2 2.</_></rects>
      <tilted>0</tilted></_>
    <_>
      <rects>
        <_>
          17 7 5 3 -1.</_>
        <_>
          17 8 5 1 3.</_></rects>
      <tilted>0</tilted></_>
    <_>
      <rects>
        <_>
          18 0 6 1 -1.</_>
        <_>
          21 0 3 1 2.</_></rects>
      <tilted>0</tilted></_>
    <_>
      <rects>
        <_>
          19 19 4 4 -1.</_>
        <_>
          19 19 2 2 2.</_>
        <_>
          21 21 2 2 2.</_></rects>
      <tilted>0</tilted></_>
    <_>
      <rects>
        <_>
          20 0 2 6 -1.</_>
        <_>
          20 0 1 3 2.</_>
        <_>
          21 3 1 3 2.</_></rects>
      <tilted>0</tilted></_>
    <_>
      <rects>
        <_>
          20 0 4 2 -1.</_>
        <_>
          22 0 2 2 2.</_></rects>
      <tilted>0</tilted></_>
    <_>
      <rects>
        <_>
          20 5 3 6 -1.</_>
        <_>
          21 5 1 6 3.</_></rects>
      <tilted>0</tilted></_>
    <_>
      <rects>
        <_>
          20 20 4 1 -1.</_>
        <_>
          22 20 2 1 2.</_></rects>
      <tilted>0</tilted></_>
    <_>
      <rects>
        <_>
          21 2 3 6 -1.</_>
        <_>
          21 4 3 2 3.</_></rects>
      <tilted>0</tilted></_>
    <_>
      <rects>
        <_>
          21 3 3 3 -1.</_>
        <_>
          21 4 3 1 3.</_></rects>
      <tilted>0</tilted></_>
    <_>
      <rects>
        <_>
          21 4 3 3 -1.</_>
        <_>
          22 4 1 3 3.</_></rects>
      <tilted>0</tilted></_>
    <_>
      <rects>
        <_>
          21 14 2 2 -1.</_>
        <_>
          22 14 1 2 2.</_></rects>
      <tilted>0</tilted></_>
    <_>
      <rects>
        <_>
          21 17 1 6 -1.</_>
        <_>
          21 20 1 3 2.</_></rects>
      <tilted>0</tilted></_>
    <_>
      <rects>
        <_>
          21 21 3 1 -1.</_>
        <_>
          22 21 1 1 3.</_></rects>
      <tilted>0</tilted></_>
    <_>
      <rects>
        <_>
          22 1 2 9 -1.</_>
        <_>
          22 4 2 3 3.</_></rects>
      <tilted>0</tilted></_>
    <_>
      <rects>
        <_>
          22 20 2 2 -1.</_>
        <_>
          22 20 1 1 2.</_>
        <_>
          23 21 1 1 2.</_></rects>
      <tilted>0</tilted></_></features></cascade>
</opencv_storage>
